svm_type epsilon_svr
kernel_type rbf
gamma 0.1
nr_class 2
total_sv 41
rho -31.536167036981972
SV
-400.45896471179736 1:0.4 
-1000.0 1:0.5 
113.50953825713708 1:0.9 
1000.0 1:1.0 
1000.0 1:1.1 
1000.0 1:1.3 
-1000.0 1:1.5 
-1000.0 1:2.0 
95.2143008081228 1:2.8 
-589.493338157662 1:3.6 
1000.0 1:4.0 
76.98260979524376 1:4.8 
-1000.0 1:5.6 
1000.0 1:6.0 
-1000.0 1:6.8 
517.3174749594111 1:7.6 
1000.0 1:8.0 
-1000.0 1:8.8 
-864.847753142469 1:9.6 
1000.0 1:10.0 
546.1949540621071 1:11.0 
-1000.0 1:12.0 
594.3891456953702 1:13.0 
-1000.0 1:14.0 
-198.81417572959867 1:15.0 
91.88613395373721 1:16.0 
-1000.0 1:17.0 
119.8782847463062 1:19.0 
-340.0240832183378 1:20.0 
360.08670407295057 1:21.0 
54.46197313510635 1:22.0 
-680.3166790175968 1:23.0 
-1000.0 1:24.0 
-690.0411327131752 1:25.0 
494.3668622241742 1:27.0 
-474.8320295102918 1:28.0 
1000.0 1:14.0 
1000.0 1:17.0 
1000.0 1:24.0 
1000.0 1:24.0 
174.54017449126417 1:29.0 
