svm_type epsilon_svr
kernel_type rbf
gamma 0.1
nr_class 2
total_sv 36
rho -30.314868296876664
SV
-471.85667992551424 1:0.4 
-1000.0 1:0.5 
180.13907864969232 1:0.6 
1000.0 1:1.0 
1000.0 1:1.1 
1000.0 1:1.3 
-1000.0 1:1.5 
-1000.0 1:2.0 
-302.5121823159908 1:3.6 
1000.0 1:4.0 
-364.12600105379613 1:4.8 
-1000.0 1:5.6 
464.1423804935537 1:6.0 
-1000.0 1:6.8 
105.77607156012846 1:7.6 
1000.0 1:8.0 
-1000.0 1:8.8 
-41.86763117897215 1:9.6 
829.229864669559 1:10.0 
-1000.0 1:11.0 
-1000.0 1:12.0 
-1000.0 1:13.0 
-529.4025552392557 1:14.0 
-78.1213607220898 1:16.0 
-82.21240849381913 1:17.0 
157.17171896741712 1:18.0 
-182.3429446588815 1:20.0 
203.77811984090414 1:21.0 
-89.06316319186945 1:22.0 
15.961547312251632 1:24.0 
-1.909889332549056 1:26.0 
263.7571762148511 1:12.0 
1000.0 1:6.0 
1000.0 1:14.0 
984.7571288679355 1:12.0 
938.7017295364478 1:12.0 
