svm_type epsilon_svr
kernel_type rbf
gamma 0.1
nr_class 2
total_sv 40
rho -31.573857000239457
SV
-389.9240325228012 1:0.4 
-1000.0 1:0.5 
96.5845830728421 1:0.9 
1000.0 1:1.0 
1000.0 1:1.1 
1000.0 1:1.3 
-1000.0 1:1.5 
-1000.0 1:2.0 
126.1821971401655 1:2.8 
-629.0826831979683 1:3.6 
1000.0 1:4.0 
96.47915971212102 1:4.8 
-1000.0 1:5.6 
1000.0 1:6.0 
-1000.0 1:6.8 
504.1108935237675 1:7.6 
1000.0 1:8.0 
-1000.0 1:8.8 
-833.0632322693857 1:9.6 
1000.0 1:10.0 
495.0842623050048 1:11.0 
-1000.0 1:12.0 
725.1429617336571 1:13.0 
-225.75385196238938 1:14.0 
3.1544278775051655 1:16.0 
-1000.0 1:17.0 
218.80571636369706 1:19.0 
-643.7087190646101 1:20.0 
-1000.0 1:21.0 
-1000.0 1:22.0 
609.8103289027171 1:23.0 
-534.1267668104223 1:25.0 
726.3853442537611 1:26.0 
-519.9476205334159 1:27.0 
-1000.0 1:28.0 
1000.0 1:21.0 
1000.0 1:17.0 
173.86703147574983 1:28.0 
1000.0 1:21.0 
1000.0 1:28.0 
