svm_type epsilon_svr
kernel_type rbf
gamma 0.1
nr_class 2
total_sv 31
rho -30.063987011970905
SV
-375.19069932927516 1:0.4 
-1000.0 1:0.5 
76.88789430911002 1:0.9 
1000.0 1:1.0 
1000.0 1:1.1 
1000.0 1:1.3 
-1000.0 1:1.5 
-1000.0 1:2.0 
152.42443338259005 1:2.8 
-658.9273041510949 1:3.6 
1000.0 1:4.0 
110.25834122312415 1:4.8 
-1000.0 1:5.6 
1000.0 1:6.0 
-1000.0 1:6.8 
497.46093522517856 1:7.6 
1000.0 1:8.0 
-1000.0 1:8.8 
-816.4934305923082 1:9.6 
1000.0 1:10.0 
471.5388027392294 1:11.0 
-1000.0 1:12.0 
771.8231997159018 1:13.0 
-276.2898550887135 1:14.0 
36.631108005750654 1:16.0 
6.134237008088796 1:18.0 
-13.277763249826501 1:20.0 
16.396378331197322 1:21.0 
-2.474188188578108 1:23.0 
3.300645387053644 1:25.0 
-0.20273472742506202 1:28.0 
